function [y1] = myNeuralNetworkFunction(x1)
%MYNEURALNETWORKFUNCTION neural network simulation function.
%
% Generated by Neural Network Toolbox function genFunction, 07-Nov-2016 11:54:25.
%
% [y1] = myNeuralNetworkFunction(x1) takes these arguments:
%   x = Qx56 matrix, input #1
% and returns:
%   y = Qx1 matrix, output #1
% where Q is the number of samples.

%#ok<*RPMT0>

% ===== NEURAL NETWORK CONSTANTS =====

% Input 1
x1_step1.xoffset = [-0.670197734422773;-0.45588963097768;-0.466325978050034;-0.782508602064264;-0.741016135460423;-0.498417358590024;-0.665925418152558;-0.654271056525563;-0.416200616594072;-0.234895261262106;-0.53018288828198;-0.275042325706743;-0.221173965593156;-0.200666192239433;-0.377650964257598;-0.224047050035389;-0.12330406578991;-0.789221116644892;-0.711360469321091;-0.682361896195586;-0.786474668828228;-0.609110231983486;-0.790163243084197;-0.794380457230227;-0.833056128189978;-0.810063590179884;-0.695391190869752;0.484494329043918;-0.538593938660516;-0.743749506419135;-0.226903098413883;-0.820376772406941;-0.472395254722588;-0.578808126091303;-0.386806809012479;-0.511186951189668;-0.498169944935924;-0.425522186594431;-0.689165790312489;-0.826736869142162;-0.813232756444598;-0.300887980077603;-0.741276085131861;-0.774926936307154;-0.483997745497241;-0.637563836747147;-0.804750043329074;-0.541238935044924;-0.657753946719328;-0.412943899323081;-0.873413769632608;-0.797477645957831;-0.738781082469187;-0.955040943142389;-0.850755868960733;0.39003051973417];
x1_step1.gain = [1.74830747748879;2.11708036614236;2.03615076905976;1.20912252766497;1.36226203977425;1.72828708228549;1.79100153446151;1.86713863540152;2.24629675872548;3.79816911417743;1.91535263287341;2.67038912334096;2.92252378230673;2.48780675209294;2.54373967638107;2.32993884176917;2.16979026180034;1.49109087913882;1.39034281962174;1.31911157903147;1.30581248132492;1.55609871576859;1.34123815371278;1.2881659568952;1.29283318805411;1.19429771976463;1.29027515380197;7.54764966106932;1.74650105236772;1.40198480976597;2.32926243234322;1.17122899403787;2.45205040419933;1.60592249892033;2.93692121114478;1.62910489241713;1.5199009149833;2.88944780497076;1.45219308286155;1.33318748490956;1.23409648213971;1.93524749359972;1.25660872558469;1.27077633040933;1.46055144212101;1.40148849170272;1.47689410731178;1.46749798756643;1.29987995279086;2.42703119569104;1.09254761196893;1.21550863457595;1.36168788556437;1.13073229638047;1.20527509143253;4.27011619488613];
x1_step1.ymin = -1;

% Layer 1
b1 = [0.035268086512915964;0.035268772159627766;-0.035268771509013752;-0.035267171619400378;-0.035268771389933999;0.035268772224384945;-0.035267811694008867;-0.035267170975385058;0.035267173605632911;-0.035267171135601551;-0.035267172505930054;-0.035268759678273663;0.035267170594481846;0.035267172120785416;-0.035268772343993164;-0.035268771075481591;-0.035268766118939809;-0.035267206938852852;-0.03526726418935535;-0.035268771095001421];
IW1_1 = [-0.0067684524896360274 0.026839683688457374 -0.033052863755738321 0.010439476948667531 0.0066993999293072596 -0.0035770480504601341 -0.00019686081846816595 -0.024989030391066178 0.034569899597325184 0.038594978113388634 -0.011207825400465487 -0.024575027852880724 0.039660039125974156 0.01184798191797061 0.0051441204270255246 0.0033374243799610369 -0.042972341569384197 -0.00076175180336124089 0.0096696146718236002 0.031392120740879798 0.012742104915182562 -0.024264922019507602 -0.0024233078238449562 0.0032929878123254958 -0.014525755198321142 -0.012340382151420254 0.01317188611485913 -0.027287745227418513 -0.014794186818536548 0.0055679504110298182 0.00068271212407715917 -0.0081902791440719627 -0.0028016901629262956 0.012584854461810086 0.024934774653153403 -0.0035410665184264349 -0.021402664138948216 -0.0038304539313046173 -0.012531975422036023 0.011517873618532218 0.018390733999282319 0.012810406994459924 0.00076135055390198509 -0.032055106159488173 -0.021299196619918574 -0.027383439829185768 0.012838870579780037 -0.0026759498609291985 0.0049505528261051604 -0.033601390992439077 -0.0013490200988901153 -0.014810258528352441 -0.016897382084882111 -0.012512541569202963 0.014267012717876055 -0.010687076883897589;-0.0067685126899114344 0.026840547732954485 -0.033053779922295926 0.010439794810058254 0.00669937528557855 -0.0035770615327372483 -0.00019698389036482741 -0.024989824151012995 0.034570960311322722 0.038596121624632565 -0.011208139713719392 -0.024575591032749419 0.039661184234163566 0.011848402761973924 0.0051443489913281532 0.0033376375886116855 -0.042973577775568192 -0.00076180730470016525 0.0096700111395014339 0.031393073116564245 0.012742263342972763 -0.024265643579708895 -0.0024231573817991132 0.0032932774411072209 -0.014526285362884315 -0.012340834203088876 0.01317242427533071 -0.027288580043303937 -0.014794502043734304 0.0055680770479110938 0.00068258331243110275 -0.0081904712568247919 -0.002801945317704343 0.01258524726861535 0.024935339602063181 -0.0035412547573568953 -0.021403096641733271 -0.003830360209833697 -0.012532371692797539 0.011518327212567982 0.018391236532081766 0.012810678790436595 0.00076117749097930748 -0.032056061875008889 -0.021299784617046947 -0.027384292390643265 0.012839271640807347 -0.0026760038864580902 0.0049507528662551111 -0.03360241652392261 -0.0013488395225120227 -0.014810417879147641 -0.016897951039441691 -0.012513022854072577 0.014267577289833695 -0.010687509592778905;0.006768512632787156 -0.026840546913061297 0.033053779052797903 -0.010439794508431082 -0.0066993753090487107 0.003577061519913096 0.00019698377360327006 0.0249898233978419 -0.03457095930481803 -0.038596120539604352 0.011208139415518431 0.024575590498354997 -0.039661183147596875 -0.011848402362646553 -0.0051443487744692509 -0.0033376373863292052 0.04297357660273269 0.00076180725203103523 -0.0096700107633016664 -0.031393072212894814 -0.012742263192646009 0.024265642895081652 0.0024231575245254487 -0.0032932771663370069 0.01452628485994607 0.012340833774168719 -0.013172423764738712 0.027288579251251721 0.014794501744652517 -0.0055680769277460353 -0.00068258343465315489 0.0081904710745689269 0.0028019450756443087 -0.012585246895893965 -0.024935339065972142 0.003541254578763392 0.021403096231318388 0.0038303602987517066 0.012532371316796189 -0.011518326782208887 -0.018391236055209766 -0.012810678532575571 -0.00076117765516683195 0.032056060968129074 0.021299784059130192 0.027384291581686468 -0.012839271260283339 0.0026760038351761588 -0.0049507526764185879 0.033602415550727752 0.0013488396938641967 0.014810417727920433 0.016897950499548023 0.012513022397523011 -0.014267576754225528 0.010687509182224384;0.0067683721528104587 -0.026838530791399955 0.033051641300894698 -0.010439052823993905 -0.0066994327928706536 0.0035770300530890771 0.00019669661272334781 0.024987971273339075 -0.034568484280041223 -0.03859345231550871 0.011207406006379267 0.024574276383571052 -0.039658511193430009 -0.011847420386320865 -0.005143815457133852 -0.0033371399020774906 0.04297069208366841 0.00076167774920438385 -0.0096690856715062126 -0.031390849977792859 -0.012741893505657822 0.024263959233652453 0.002423508541473508 -0.0032926013744156114 0.01452504780212157 0.012339778981184091 -0.013171168054471119 0.02728663132701236 0.014793766201679173 -0.0055677814351062479 -0.00068288398609904553 0.0081900228012323616 0.0028013497210058269 -0.012584330337111789 -0.024934020822324765 0.0035408153570096789 0.021402087029592981 0.003830578968092975 0.012531446675317151 -0.011517268391934685 -0.018390063461318631 -0.012810044325117521 -0.00076158145610285752 0.032053830939634376 0.021298412046424322 0.027382302250414926 -0.012838335441945582 0.002675877772728914 -0.0049502859156721072 0.033600022617773957 0.0013492610251372922 0.014810045881083408 0.016896622928403209 0.012511899394424431 -0.014266259415996336 0.010686499525882161;0.0067685126222929385 -0.026840546763062387 0.033053778893683126 -0.010439794453226132 -0.0066993753133497546 0.0035770615175915264 0.00019698375223739766 0.024989823259972555 -0.034570959120605621 -0.03859612034092947 0.011208139360896513 0.024575590400487485 -0.039661182948687104 -0.011848402289522645 -0.0051443487347634549 -0.0033376373493058378 0.042973576387962023 0.00076180724239886897 -0.0096700106944548701 -0.031393072047507346 -0.012742263165067672 0.024265642769742798 0.0024231575506463298 -0.003293277116025008 0.014526284767827028 0.012340833695662211 -0.013172423671242264 0.027288579106185873 0.01479450168987999 -0.0055680769057520965 -0.00068258345713356457 0.0081904710411731252 0.0028019450313353897 -0.012585246827595497 -0.024935338967866882 0.0035412545460511563 0.021403096156215912 0.0038303603149495457 0.012532371247949472 -0.011518326703411264 -0.018391235967918518 -0.012810678485336721 -0.00076117768522964964 0.032056060802046364 0.021299783957012437 0.02738429143358221 -0.012839271190618055 0.0026760038257779709 -0.0049507526416742286 0.033602415372631422 0.0013488397252284308 0.014810417700265687 0.016897950400687905 0.012513022313912731 -0.014267576656070809 0.010687509107046553;-0.0067685126955806347 0.026840547814733787 -0.033053780008846491 0.010439794840107324 0.0066993752833311776 -0.0035770615339779824 -0.00019698390208079677 -0.024989824226005736 0.034570960411599315 0.038596121732682544 -0.011208139743471492 -0.024575591085973503 0.039661184342422967 0.011848402801773905 0.0051443490129479711 0.0033376376087830796 -0.042973577892498775 -0.00076180730995055207 0.0096700111770111306 0.031393073206601209 0.012742263357971994 -0.024265643647939348 -0.0024231573675375265 0.0032932774685720976 -0.014526285413112182 -0.012340834245801126 0.013172424326243732 -0.027288580122205353 -0.014794502073505827 0.0055680770598773412 0.00068258330023462173 -0.0081904712749952674 -0.0028019453418844406 0.012585247305849808 0.024935339655434034 -0.0035412547751906549 -0.021403096682608678 -0.0038303602009381074 -0.012532371730293208 0.011518327255499393 0.018391236579581551 0.012810678816128946 0.00076117747457637931 -0.032056061965304389 -0.021299784672661772 -0.027384292471269094 0.012839271678746494 -0.0026760038915434191 0.0049507528851560892 -0.033602416620861067 -0.0013488395054001238 -0.014810417894178076 -0.016897951093198794 -0.012513022899666937 0.014267577343275087 -0.010687509633731185;0.0067684283587954247 -0.026839337372065016 0.033052496546402826 -0.010439349546916893 -0.0066994098033574222 0.003577042645211762 0.0001968114918882427 0.024988712245123595 -0.034569474453619908 -0.038594519783042416 0.011207699420148544 0.024574802122605315 -0.039659580154886603 -0.011847813240432931 -0.0051440288173004419 -0.0033373389253969908 0.042971846085420401 0.00076172955820399989 -0.0096694557655897326 -0.03139173901964025 -0.012742041412585104 0.024264632810983053 0.0024233681190927565 -0.0032928717293280356 0.014525542704581952 0.012340200965878357 -0.013171670417218615 0.027287410625604639 0.014794060471589992 -0.0055678996531596985 -0.00068276375075841862 0.0081902021425169901 0.0028015878968158567 -0.012584697021212845 -0.024934548213702199 0.0035409910718488089 0.021402490784653581 0.0038304914927550083 0.012531816593086985 -0.011517691815151622 -0.018390532578647006 -0.012810298054315496 -0.00076141991609719772 0.032054723099532653 0.021298960944397514 0.027383098114680999 -0.012838709830940761 0.002675928206707737 -0.0049504726489894386 0.033600979949911847 0.0013490924722985196 0.014810194654709502 0.016897154043261073 0.012512348666988585 -0.014266786434120221 0.010686903451746168;0.0067683720962457622 -0.026838529979730588 0.033051640440329939 -0.010439052525462705 -0.0066994328159928722 0.0035770300403603298 0.00019669649717152018 0.024987970527789602 -0.034568483283821436 -0.038593451241388736 0.011207405711179124 0.024574275854597712 -0.039658510117874371 -0.011847419991009692 -0.0051438152424605321 -0.0033371397018111737 0.042970690922517783 0.00076167769707305216 -0.0096690852991328357 -0.031390849083236569 -0.012741893356812396 0.024263958555881749 0.0024235086827694981 -0.0032926011023995698 0.01452504730424538 0.012339778556537482 -0.013171167548988704 0.027286630542912756 0.014793765905562615 -0.0055677813161687769 -0.00068288410713261162 0.0081900226208005775 0.0028013494813458519 -0.012584329968186751 -0.024934020291693101 0.0035408151802032092 0.021402086623360159 0.003830579056119875 0.012531446303127369 -0.011517267965900652 -0.018390062989331688 -0.012810044069908218 -0.00076158161862553068 0.032053830041879443 0.021298411494082372 0.027382301449654239 -0.012838335065265299 0.0026758777219563958 -0.0049502857277761948 0.033600021654574902 0.0013492611948026491 0.014810045731382932 0.016896622394050067 0.012511898942426578 -0.014266258885642088 0.010686499119433661;-0.0067683723272664283 0.026838533294237955 -0.033051643954824454 0.010439053744748933 0.0066994327215371139 -0.0035770300921207465 -0.00019669696916378232 -0.024987973572581378 0.034568487352728369 0.03859345562787183 -0.011207406916891606 -0.024574278014998882 0.039658514510514747 0.011847421605337494 0.0051438161192062862 0.0033371405196575546 -0.042970695664591739 -0.0007616779099592451 0.0096690868198766183 0.031390852736549603 0.01274189396461608 -0.024263961323806951 -0.0024235081056238994 0.0032926022133105003 -0.014525049337818565 -0.012339780290715635 0.013171169613288274 -0.027286633745190574 -0.014793767114799832 0.0055677818019637549 0.00068288361296019705 -0.0081900233578054826 -0.002801350460030938 0.012584331475003697 0.024934022458919305 -0.0035408159022362064 -0.021402088282495006 -0.0038305786967389233 -0.012531447823223763 0.011517269705834615 0.018390064917011954 0.012810045112486089 0.00076158095481635693 -0.032053833707995451 -0.021298413749714053 -0.027382304720025612 0.012838336603734745 -0.0026758779292489609 0.0049502864951184895 -0.033600025588456747 -0.0013492605021577597 -0.014810046342774099 -0.016896624576520095 -0.012511900788560017 0.014266261051261822 -0.010686500779292894;0.006768372110335979 -0.026838530181728378 0.033051640654448301 -0.010439052599684006 -0.0066994328102272134 0.0035770300435343165 0.0001966965259041238 0.024987970713211839 -0.034568483531593239 -0.038593451508532363 0.011207405784627717 0.024574275986175412 -0.039658510385423458 -0.011847420089347317 -0.005143815295857542 -0.0033371397516652732 0.042970691211393776 0.00076167771003044958 -0.0096690853917052264 -0.031390849305749348 -0.01274189339385684 0.024263958724475867 0.0024235086476076641 -0.0032926011700233218 0.014525047428086593 0.012339778662217634 -0.013171167674687595 0.027286630737930685 0.014793765979225578 -0.0055677813457307339 -0.00068288407695486482 0.008190022665706299 0.002801349540900696 -0.012584330059936951 -0.024934020423699309 0.0035408152241781289 0.021402086724397796 0.0038305790342249126 0.012531446395697372 -0.0115172680718637 -0.018390063106693198 -0.012810044133365908 -0.00076158157820518425 0.032053830265151788 0.021298411631496102 0.02738230164873021 -0.012838335158984018 0.0026758777346040782 -0.0049502857745236575 0.033600021894109856 0.0013492611526299244 0.014810045768638662 0.016896622526919911 0.012511899054796646 -0.014266259017436262 0.010686499220535391;0.0067683722306942128 -0.026838531908503153 0.033051642485395737 -0.010439053234972203 -0.0066994327609918572 0.003577030070529875 0.00019669677184477324 0.024987972299577249 -0.034568485651501571 -0.038593453793837253 0.01120740641281647 0.024574277111758438 -0.039658512673988865 -0.011847420930379618 -0.0051438157526174158 -0.0033371401777340286 0.042970693681942604 0.00076167782096435899 -0.0096690861840293824 -0.03139085120913402 -0.012741893710472482 0.024263960166555659 0.0024235083469443999 -0.0032926017488211531 0.014525048487532123 0.012339779565647854 -0.013171168750198546 0.027286632406281191 0.014793766609230836 -0.0055677815988360302 -0.00068288381949669925 0.0081900230496557251 0.0028013500508787476 -0.01258433084498283 -0.024934021552818431 0.0035408156003646041 0.021402087588790242 0.0038305788469948331 0.012531447187660142 -0.011517268978395697 -0.018390064111045469 -0.012810044676574067 -0.00076158123235529581 0.03205383217524433 0.021298412806679649 0.027382303352711437 -0.012838335960522446 0.0026758778425863962 -0.0049502861743106093 0.033600023943646758 0.0013492607917178841 0.014810046087156768 0.01689662366401604 0.012511900016726142 -0.014266260145880344 0.010686500085288092;0.0067685115940627986 -0.026840532003999548 0.033053763244345211 -0.01043978902369931 -0.0066993757343681805 0.0035770612873669699 0.00019698164994117818 0.024989809701433927 -0.034570941002205237 -0.038596100808169463 0.011208133992021035 0.02457558078069548 -0.039661163388712069 -0.011848395100901195 -0.0051443448305424312 -0.0033376337073495223 0.042973555271795236 0.00076180629434261112 -0.0096700039221648808 -0.031393055779538999 -0.012742260459066526 0.024265630444452454 0.0024231601205350127 -0.0032932721686093859 0.014526275711710314 0.012340825973916485 -0.013172414478667745 0.027288564846308171 0.014794496305435728 -0.0055680747426289359 -0.00068258565741256729 0.0081904677596258448 0.0028019406728519449 -0.012585240118006154 -0.024935329317802714 0.003541251330617121 0.021403088768547556 0.0038303619159229052 0.012532364479081024 -0.011518318955345707 -0.018391227383998874 -0.012810673842740318 -0.00076118064148555107 0.032056044477193145 0.021299773913225524 0.027384276870538172 -0.012839264339939928 0.0026760029029731167 -0.0049507492246898882 0.033602397855147445 0.0013488428098101756 0.014810414978443723 0.016897940682156019 0.012513014092855714 -0.014267567012443716 0.010687501715749524;-0.0067683720627839264 0.026838529499815453 -0.033051639931432772 0.010439052348851481 0.0066994328296293244 -0.0035770300328430678 -0.00019669642878094107 -0.02498797008681718 0.034568482694577532 0.038593450606138363 -0.011207405536588798 -0.024574275541737474 0.039658509481760078 0.01184741975722379 0.00514381511550451 0.0033371395834035484 -0.042970690235809919 -0.00076167766623038812 0.0096690850788990045 0.031390848554215145 0.012741893268792546 -0.024263958155036958 -0.0024235087663068674 0.0032926009415042111 -0.01452504700961701 -0.012339778305545361 0.013171167250032041 -0.027286630079148777 -0.014793765730456029 0.0055677812458231005 0.00068288417852712128 -0.008190022514085224 -0.0028013493396289667 0.012584329750011881 0.024934019977821693 -0.003540815075627059 -0.02140208638304503 -0.0038305791081969655 -0.012531446082998283 0.011517267713930194 0.018390062710138388 0.012810043918855296 0.00076158171472036091 -0.032053829511061685 -0.02129841116755125 -0.027382300976025419 0.012838334842489517 -0.0026758776919617818 0.0049502856166718295 -0.033600021084862271 -0.0013492612950459732 -0.014810045642838729 -0.016896622078074755 -0.012511898675129614 0.014266258572013607 -0.010686498879097004;-0.006768372196862207 0.026838531423168298 -0.03305164197074148 0.010439053056436514 0.0066994327747643733 -0.0035770300629401415 -0.00019669670274442884 -0.024987971853764997 0.034568485055749616 0.038593453151626413 -0.011207406236234903 -0.024574276795412756 0.039658512030834009 0.011847420694037269 0.0051438156242856166 0.0033371400580026996 -0.042970692987682482 -0.00076167778979333023 0.0096690859614078795 0.031390850674202143 0.01274189362146062 -0.02426395976125334 -0.0024235084313503738 0.0032926015861749428 -0.014525048189887594 -0.012339779311709027 0.013171168447937063 -0.02728663193746321 -0.014793766432166634 0.0055677815277123382 0.00068288389184271851 -0.0081900229417324992 -0.0028013499075057783 0.012584330624439533 0.024934021235522123 -0.0035408154946644402 -0.021402087345889036 -0.0038305788995579913 -0.012531446965109286 0.011517268723633034 0.018390063828775095 0.012810044523894483 0.00076158132952316591 -0.032053831638414798 -0.021298412476423993 -0.027382302873835817 0.012838335735239596 -0.002675877812226622 0.0049502860619539046 -0.033600023367696137 -0.0013492608931636927 -0.014810045997616131 -0.016896623344520377 -0.012511899746383739 0.014266259828764349 -0.010686499842293107;0.0067685127060582509 -0.026840547965560436 0.033053780168716351 -0.010439794895574495 -0.0066993752790432352 0.0035770615363044738 0.00019698392352554073 0.024989824364582639 -0.034570960596793474 -0.038596121932310434 0.011208139798299809 0.02457559118429465 -0.039661184542332861 -0.011848402875281541 -0.0051443490528501178 -0.0033376376459942976 0.042973578108377396 0.00076180731963100003 -0.009670011246195714 -0.031393073372901301 -0.012742263385581666 0.024265643773933268 0.0024231573412646554 -0.003293277519092786 0.014526285505559112 0.012340834324699868 -0.013172424420222732 0.027288580267982983 0.0147945021285616 -0.0055680770819968878 -0.00068258327781255796 0.0081904713085145311 0.0028019453864422954 -0.01258524737433688 -0.024935339754082863 0.0035412548080131895 0.021403096758080154 0.0038303601845374549 0.012532371799458007 -0.011518327334678807 -0.018391236667294131 -0.01281067886362758 -0.00076117744436550623 0.032056062132148226 0.021299784775290959 0.027384292620117996 -0.01283927174880809 0.0026760039009923083 -0.004950752920083545 0.033602416799945391 0.0013488394738941901 0.014810417922029398 0.016897951192481286 0.012513022983691273 -0.014267577441747789 0.010687509709234766;0.0067685125946814421 -0.026840546366850879 0.033053778473679699 -0.010439794307463021 -0.006699375324633371 0.0035770615113883365 0.00019698369580482052 0.024989822895971854 -0.034570958634220286 -0.038596119816683906 0.011208139216785363 0.024575590142276917 -0.039661182423628594 -0.011848402096558425 -0.0051443486299373922 -0.0033376372515137921 0.042973575821036183 0.0007618072169427424 -0.0096700105126708014 -0.031393071610734943 -0.012742263092472606 0.024265642438817903 0.0024231576196358526 -0.00329327698318326 0.014526284524747773 0.01234083348837282 -0.013172423424440067 0.027288578723385679 0.014794501545333497 -0.0055680768476924613 -0.00068258351613882835 0.0081904709530991673 0.0028019449143010288 -0.012585246647532534 -0.024935338708801155 0.0035412544597283697 0.021403095957892977 0.003830360357960591 0.012532371066255071 -0.011518326495440755 -0.018391235737508723 -0.01281067836070292 -0.00076117776461028755 0.032056060363939987 0.021299783687389075 0.027384291042499481 -0.012839271006708404 0.0026760038010193712 -0.0049507525499450254 0.033602414902373479 0.001348839808029534 0.01481041762720773 0.016897950139811151 0.012513022093289181 -0.014267576397206065 0.010687508908624521;0.0067685121595588531 -0.026840540120548758 0.03305377185059221 -0.01043979200959917 -0.0066993755028325903 0.0035770614139747606 0.00019698280603404418 0.024989817157782035 -0.034570950966199158 -0.038596111550049585 0.01120813694456824 0.024575586071037998 -0.039661174145502708 -0.011848399054207722 -0.0051443469776296935 -0.0033376357101908504 0.042973566884417454 0.00076180681571282776 -0.0096700076465400121 -0.031393064725910837 -0.012742261947240386 0.024265637222605975 0.0024231587072875401 -0.0032932748893647083 0.014526280692012028 0.01234083022042704 -0.013172419534010809 0.02728857268837925 0.014794499266553017 -0.0055680759322131864 -0.00068258444741656796 0.0081904695643101773 0.0028019430697416438 -0.012585243807927681 -0.024935334624784776 0.0035412530989157036 0.021403092831286146 0.0038303610356116707 0.012532368201551854 -0.011518323216296009 -0.018391232104589521 -0.012810676395879664 -0.00076117901572601344 0.032056053454815193 0.021299779436693624 0.027384284879298445 -0.012839268107411719 0.0026760034104528273 -0.0049507511038291707 0.033602407488683143 0.0013488411134536828 0.014810416475276421 0.016897946026696611 0.012513018613900117 -0.014267572315813038 0.010687505780507185;0.0067683752543325733 -0.026838575298083069 0.033051688492937978 -0.010439069197024449 -0.0066994315245776093 0.0035770307480160238 0.00019670295153161529 0.024988012159758689 -0.034568538917331804 -0.038593511217859415 0.011207422196875837 0.024574305393832492 -0.039658570178295667 -0.011847442063740971 -0.0051438272301920192 -0.0033371508839821441 0.042970755761037753 0.00076168060796138353 -0.0096691060929463557 -0.031390899034770964 -0.012741901667376427 0.024263996401362061 0.002423500793308326 -0.0032926162921971583 0.014525075110615317 0.012339802266007992 -0.013171195774429198 0.027286674328309925 0.014793782439456423 -0.0055677879583730747 -0.00068287735169786454 0.0081900326972912108 0.0028013628632097432 -0.012584350570591448 -0.024934049923744313 0.0035408250527547594 0.021402109308859635 0.0038305741415329136 0.012531467087170223 -0.011517291756126823 -0.018390089347079922 -0.012810058325951737 -0.00076157254261839278 0.032053880168532889 0.021298442334385655 0.027382346165827531 -0.012838356100551333 0.0026758805556558064 -0.0049502962194633753 0.033600075442914004 0.0013492517247928998 0.014810054090699539 0.0168966522349966 0.012511924184961243 -0.014266288496304491 0.01068652181417811;0.006768380281841224 -0.026838647440567961 0.033051764988478637 -0.010439095736687505 -0.0066994294686880933 0.0035770318744085547 0.00019671322644626091 0.024988078434098851 -0.034568627481047408 -0.038593606694905996 0.011207448440644722 0.024574352417540277 -0.039658665789076245 -0.011847477201539346 -0.0051438463135451192 -0.0033371686849859423 0.042970858978005996 0.0007616852418695409 -0.0096691391949324957 -0.031390978552915921 -0.012741914896907928 0.024264056647868865 0.0024234882338687249 -0.0032926404731609604 0.0145251193757183 0.012339840009245939 -0.013171240706756326 0.027286744030730864 0.01479380875990987 -0.005567798532154878 -0.0006828665978298457 0.008190048738162101 0.0028013841660137063 -0.012584383367795637 -0.024934097095273309 0.0035408407689928008 0.021402145422113987 0.0038305663177703579 0.012531500173616211 -0.011517329628049668 -0.018390131306212393 -0.012810081020345854 -0.00076155809440176555 0.032053959965655583 0.021298491429311592 0.027382417349897881 -0.012838389586831967 0.0026758850666498339 -0.0049503129212652335 0.033600161069191017 0.0013492366493306821 0.014810067397883139 0.016896699739268047 0.012511964368928534 -0.014266335633998109 0.010686557942136295;0.00676851259638977 -0.026840546391464645 0.033053778499802768 -0.010439794316522239 -0.0066993753240000816 0.0035770615117901037 0.00019698369931877487 0.024989822918537741 -0.034570958664302973 -0.038596119849095556 0.011208139225726832 0.024575590158309377 -0.039661182456130005 -0.011848402108510757 -0.0051443486364455334 -0.003337637257574987 0.042973575856204649 0.00076180721852718211 -0.0096700105239405625 -0.031393071637811097 -0.012742263096990135 0.024265642459366653 0.0024231576153810794 -0.0032932769914394457 0.014526284539753546 0.012340833501237932 -0.013172423439788352 0.027288578747110066 0.014794501554312309 -0.0055680768512963016 -0.00068258351242332399 0.0081904709585483466 0.0028019449215822925 -0.012585246658767039 -0.024935338724906289 0.0035412544651198825 0.021403095970222247 0.0038303603553419118 0.012532371077546163 -0.011518326508312693 -0.018391235751755029 -0.012810678368411672 -0.00076117775968592661 0.032056060391069806 0.021299783704115109 0.027384291066754763 -0.012839271018104389 0.0026760038025466257 -0.0049507525556251042 0.033602414931574544 0.0013488398029138605 0.014810417631722989 0.016897950156040686 0.012513022106890561 -0.014267576413379198 0.010687508920935869];

% Layer 2
b2 = -0.23282047054331459;
LW2_1 = [-0.15019623190887785 -0.15019259910419641 0.1501926025508897 0.15020107887165471 0.15019260318265779 -0.15019259876096916 0.15019768791343271 0.15020108228260565 -0.15020106834946401 0.1502010814348467 0.15020107417484943 0.15019266523735644 -0.15020108430065579 -0.15020107621453224 0.1501925981263165 0.15019260484861033 0.15019263111115255 0.1502008917643414 0.15020058847487808 0.15019260474488547];

% Output 1
y1_step1.ymin = -1;
y1_step1.gain = 0.0997506234413965;
y1_step1.xoffset = 0.53;

% ===== SIMULATION ========

% Dimensions
Q = size(x1,1); % samples

% Input 1
x1 = x1';
xp1 = mapminmax_apply(x1,x1_step1);

% Layer 1
a1 = tansig_apply(repmat(b1,1,Q) + IW1_1*xp1);

% Layer 2
a2 = repmat(b2,1,Q) + LW2_1*a1;

% Output 1
y1 = mapminmax_reverse(a2,y1_step1);
y1 = y1';
end

% ===== MODULE FUNCTIONS ========

% Map Minimum and Maximum Input Processing Function
function y = mapminmax_apply(x,settings)
y = bsxfun(@minus,x,settings.xoffset);
y = bsxfun(@times,y,settings.gain);
y = bsxfun(@plus,y,settings.ymin);
end

% Sigmoid Symmetric Transfer Function
function a = tansig_apply(n,~)
a = 2 ./ (1 + exp(-2*n)) - 1;
end

% Map Minimum and Maximum Output Reverse-Processing Function
function x = mapminmax_reverse(y,settings)
x = bsxfun(@minus,y,settings.ymin);
x = bsxfun(@rdivide,x,settings.gain);
x = bsxfun(@plus,x,settings.xoffset);
end
