function [y1] = myNeuralNetworkFunction(x1)
%MYNEURALNETWORKFUNCTION neural network simulation function.
%
% Generated by Neural Network Toolbox function genFunction, 18-Aug-2016 13:14:39.
% 
% [y1] = myNeuralNetworkFunction(x1) takes these arguments:
%   x = 56xQ matrix, input #1
% and returns:
%   y = 1xQ matrix, output #1
% where Q is the number of samples.

%#ok<*RPMT0>

  % ===== NEURAL NETWORK CONSTANTS =====
  
  % Input 1
  x1_step1_xoffset = [0.238888888888889;0.283333333333333;0.127777777777778;0.0166666666666667;0.0388888888888889;0.216666666666667;0.0166666666666667;0.194444444444444;0.172222222222222;0.305555555555556;0.0611111111111111;0.15;0.127777777777778;0.35;0.0833333333333333;0.105555555555556;0.35;0.00555555555555556;0.0611111111111111;0.0833333333333333;0.372222222222222;0.172222222222222;0.0166666666666667;0.216666666666667;0.105555555555556;0.15;0.405555555555556;0.594444444444444;0.0388888888888889;0.0388888888888889;0.216666666666667;0.0166666666666667;0.0611111111111111;0.15;0.261111111111111;0.327777777777778;0.172222222222222;0.0833333333333333;0.0388888888888889;0.0166666666666667;0.416666666666667;0.305555555555556;0.0833333333333333;0.0611111111111111;0.194444444444444;0.127777777777778;0.0388888888888889;0.238888888888889;0.416666666666667;0.327777777777778;0.0611111111111111;0.0611111111111111;0.272222222222222;0.00555555555555556;0.0833333333333333;0.727777777777778];
  x1_step1_gain = [3.75;3.33333333333333;3.91304347826087;2.46575342465753;2.09302325581395;2.72727272727273;2.72727272727273;2.64705882352941;2.5;4.61538461538462;2.25;2.72727272727273;2.64705882352941;3.33333333333333;2.57142857142857;2.25;3.10344827586207;2.95081967213115;2.27848101265823;2.19512195121951;3.33333333333333;2.64705882352941;2.30769230769231;3.10344827586207;3.21428571428571;2.36842105263158;3.6;5.14285714285714;2.46575342465753;2.19512195121951;2.64705882352941;3.75;2.5;2.4;3.91304347826087;3.21428571428571;2.43243243243243;3.10344827586207;2.43243243243243;2.36842105263158;3.91304347826087;3.10344827586207;2.33766233766234;2.14285714285714;2.57142857142857;2.36842105263158;3.46153846153846;2.64705882352941;3.46153846153846;3.91304347826087;2.14285714285714;2.25;6.66666666666667;2.27848101265823;2.43243243243243;7.82608695652174];
  x1_step1_ymin = -1;
  
  % Layer 1
  b1 = [0.025790655600907122;0.025790690860452551;0.025790646645595383;-0.025790705160507799;0.025790650651790693;-0.025790682880029812;0.025790747787036092;0.025790773343102973;-0.025790742081522617;0.025790635103702952;0.025790714724359974;-0.025790727540419171;0.025790746362403343;0.025790651919710191;-0.025790728436858451;0.025790662226129878;0.02579074767178598;0.025790731956240192;-0.025790741328699636;0.025790644753580397];
  IW1_1 = [-0.0008697563198874238 0.0018619044371208076 -0.014151477147312507 -0.010110219687672015 -0.0099370683056041569 0.0179474534037329 -0.00078138400112428793 -0.0028699638632831651 0.024757541491808453 0.027995540406158592 -0.0024634704936712147 -0.0066283171176486598 0.032752930345077425 0.0056606389304465973 0.0019942806462145734 -0.002393136331868747 -0.038297154656612549 -0.0099057690488500126 -0.0092366033936953779 0.035876234698248848 0.0037769893547187267 -0.0044335059074778367 0.019138086976740121 0.0028632740859725224 -0.018980705017774154 -0.01828785827744479 0.015944294165858568 0.0055247772490833813 -0.015318530531485831 -0.011316399844499867 -0.013757170554343395 -0.02798093437946492 -0.015703324718369806 0.030450437646371866 -0.0030569738104963273 0.0059087457218122775 0.0031064561103735021 0.0044724200892950206 -0.0065093363872741911 0.00075799827626548799 0.022619052186584398 -0.0052030607618547544 0.011067572264920521 -0.019722023169616083 -0.0097768490818903372 -0.046236069635071375 0.015945545010326297 0.00054593380247509795 0.0087723703246762631 -0.0096116686942478817 0.017383013529841739 -0.015360416298192701 -0.0091343589781640467 -0.024907343130815145 0.015909571390268752 -0.0063464491098534585;-0.00086974922500463695 0.0018619169455731694 -0.014151511761680462 -0.010110240180938153 -0.0099370940091177799 0.017947490526379554 -0.00078139360148644216 -0.0028699777026818321 0.024757596840911708 0.027995599674408619 -0.0024634786612916125 -0.0066283307950553913 0.03275299595844821 0.0056606567105040818 0.001994294480099584 -0.0023931360395163495 -0.038297232062931293 -0.0099057934442093529 -0.0092366128940802403 0.035876307114383006 0.0037769900309655977 -0.0044335178992442829 0.019138126653915191 0.0028632878308396375 -0.018980745564436085 -0.01828789360235037 0.01594433290423115 0.005524788234599942 -0.015318553592344448 -0.011316420693081643 -0.013757204279864503 -0.027980993393019769 -0.015703362043476537 0.030450499255788861 -0.0030569785829608464 0.0059087492561355976 0.003106466896398308 0.0044724384728116687 -0.0065093603598275779 0.00075800832539991004 0.022619101734299644 -0.0052030689926437085 0.01106758400726884 -0.019722062665662139 -0.009776875226805655 -0.046236159843033697 0.015945575263168598 0.00054593273758498176 0.0087723940781862849 -0.0096116963377661947 0.017383055519669306 -0.015360439899017078 -0.0091343856750547483 -0.024907392980480524 0.015909610441955116 -0.0063464621614833759;-0.00086975812178857845 0.0018619012602803704 -0.014151468356000316 -0.010110214482797817 -0.009937061777468021 0.017947443975341981 -0.00078138156287574508 -0.0028699603484066329 0.024757527434289082 0.027995525353246418 -0.0024634684192831316 -0.0066283136438648679 0.032752913680607169 0.0056606344147144176 0.001994277132751097 -0.0023931364060888996 -0.03829713499696992 -0.0099057628529492514 -0.0092366009807308014 0.035876216306019941 0.0037769891829203916 -0.0044335028618287513 0.019138076899538326 0.002863270595105868 -0.018980694719762489 -0.01828784930561966 0.015944284327133979 0.0055247744589854396 -0.015318524674445388 -0.011316394549370954 -0.013757161988775113 -0.027980919391239423 -0.015703315238579155 0.030450421998827221 -0.0030569725983772274 0.0059087448241145583 0.0031064533709685782 0.0044724154203127746 -0.0065093302987988474 0.00075799572403784652 0.022619039602488025 -0.0052030586713825251 0.011067569282534894 -0.019722013138423759 -0.009776842441646413 -0.046236046724042204 0.01594553732670308 0.00054593407292636751 0.0087723642918012112 -0.009611661673402801 0.017383002865320706 -0.01536041030401435 -0.0091343521977501549 -0.024907330470003011 0.015909561471970955 -0.0063464457950058555;0.00086974634742149307 -0.0018619220187440619 0.014151525800347588 0.010110248492411492 0.0099371044337909671 -0.017947505582279848 0.00078139749520634411 0.0028699833156366054 -0.024757619288983877 -0.027995623711944199 0.0024634819738818762 0.0066283363422184362 -0.032753022569351135 -0.0056606639216606911 -0.0019943000908490003 0.0023931359208897553 0.038297263456716697 0.0099058033383150751 0.0092366167470517551 -0.035876336484296792 -0.0037769903051477877 0.0044335227627956258 -0.019138142745847669 -0.0028632934054573954 0.018980762009025272 0.018287907929099179 -0.015944348615476094 -0.0055247926900099083 0.015318562945079077 0.011316429148652992 0.013757217958039835 0.027981017327247774 0.015703377181536627 -0.030450524242799079 0.0030569805185148031 -0.0059087506894540424 -0.0031064712709496806 -0.0044724459287517762 0.0065093700825463738 -0.0007580124011340875 -0.022619121829468181 0.0052030723307813879 -0.011067588769510231 0.019722078684120452 0.0097768858305082324 0.046236196428765662 -0.01594558753282372 -0.00054593230567766716 -0.0087724037119973099 0.009611707549277617 -0.017383072549613399 0.01536044947074529 0.0091343965026475394 0.024907413198081811 -0.015909626280283782 0.0063464674548493905;-0.00086975731570608007 0.0018619026814441196 -0.014151472288814141 -0.010110216811208484 -0.0099370646978442761 0.017947448193160746 -0.00078138265363197922 -0.0028699619207939397 0.02475753372295569 0.027995532087210395 -0.0024634693472649692 -0.0066283151978691569 0.032752921135500365 0.0056606364348395005 0.0019942787045039555 -0.0023931363728899708 -0.038297143791766117 -0.0099057656247036399 -0.009236602060183027 0.035876224533842642 0.0037769892597763256 -0.0044335042243071453 0.019138081407600507 0.0028632721567525155 -0.018980699326605135 -0.018287853319191208 0.015944288728513889 0.0055247757071438322 -0.015318527294603788 -0.011316396918163198 -0.013757165820603347 -0.027980926096260125 -0.015703319479386274 0.030450428998797983 -0.0030569731406215575 0.0059087452257058897 0.0031064545964486338 0.0044724175089900465 -0.0065093330224865959 0.00075799686577845808 0.022619045232012934 -0.0052030596065618037 0.011067570616719135 -0.019722017625907251 -0.0097768454121772552 -0.046236056973360307 0.01594554076399389 0.00054593395194043985 0.0087723669906203602 -0.0096116648141970039 0.017383007636122307 -0.015360412985527963 -0.0091343552309824539 -0.02490733613385256 0.015909565908945933 -0.0063464472779138437;0.00086975083085938962 -0.001861914114435677 0.014151503927195984 0.010110235542579756 0.0099370881914823666 -0.017947482124198295 0.00078139142855702178 0.0028699745703067965 -0.024757584313419099 -0.027995586259887524 0.0024634768126566304 0.0066283276993690738 -0.032752981107809172 -0.0056606526862183837 -0.0019942913489623009 0.0023931361057048604 0.038297214543125187 0.0099057879226579198 0.0092366107438375741 -0.035876290724042581 -0.0037769898779311138 0.0044335151850705733 -0.019138117673555742 -0.0028632847198603274 0.018980736387272702 0.018287885607072826 -0.01594432413633318 -0.0055247857481858891 0.01531854837288122 0.011316415974311921 0.013757196646555309 0.027980980036142463 0.015703353595461149 -0.030450485311388342 0.0030569775027886152 -0.0059087484562202718 -0.0031064644551217699 -0.0044724343119357185 0.0065093549339486113 -0.00075800605089435078 -0.022619090519872504 0.0052030671297323087 -0.011067581349595023 0.019722053726298816 0.0097768693092573581 0.046236139425768791 -0.015945568415883647 -0.00054593297861285888 -0.0087723887019035482 0.0096116900810260981 -0.017383046015855271 0.015360434557336017 0.0091343796325675502 0.024907381697733773 -0.015909601603148679 0.006346459207434243;-0.0008697377692746727 0.0018619371417316925 -0.014151567648568817 -0.01011027326817374 -0.009937135509006453 0.017947550462595489 -0.00078140910233410966 -0.0028700000476538979 0.024757686204905874 0.027995695365744228 -0.0024634918485433757 -0.0066283528778379548 0.032753101894037781 0.0056606854177176005 0.0019943168163714638 -0.0023931355671007568 -0.038297357038832198 -0.0099058328319429154 -0.0092366282320571029 0.035876424033353782 0.0037769911221859215 -0.0044335372607165989 0.019138190714468626 0.0028633100232150674 -0.018980811028977314 -0.018287950635790723 0.015944395449517208 0.0055248059711902843 -0.015318590824426423 -0.011316454353897722 -0.013757258731661027 -0.027981088673163405 -0.015703422306926462 0.030450598726882709 -0.003056986288173203 0.0059087549617214052 0.0031064843112498671 0.0044724681546014725 -0.0065093990655206531 0.00075802455085277251 0.022619181731543921 -0.005203082281367049 0.011067602964934304 -0.019722126433722491 -0.0097769174394424316 -0.046236305487409049 0.015945624107477005 0.00054593101814953259 0.0087724324297336308 -0.0096117409700989913 0.017383123314611056 -0.015360478002929733 -0.0091344287790577853 -0.024907473464887916 0.015909673493170719 -0.0063464832339057437;-0.00086973262603639667 0.0018619462088977849 -0.014151592738666908 -0.010110288122366478 -0.0099371541401800378 0.017947577370444744 -0.00078141606155458939 -0.0028700100794876011 0.024757726324217195 0.027995738325538207 -0.0024634977689518148 -0.0066283627917032364 0.032753149452815017 0.0056606983057698353 0.0019943268443753551 -0.0023931353548531436 -0.038297413145591243 -0.009905850514843632 -0.0092366351175735984 0.035876476523030477 0.0037769916118332194 -0.0044335459529653721 0.019138219473872516 0.0028633199865513935 -0.018980840418754436 -0.018287976240357929 0.015944423528849366 0.0055248139338686516 -0.015318607539146928 -0.011316469465554278 -0.013757283177476176 -0.027981131448378074 -0.015703449361829443 0.030450643383513741 -0.0030569897473010574 0.0059087575229040627 0.0031064921296245318 0.0044724814802844124 -0.0065094164424501898 0.00075803183539506274 0.022619217645692906 -0.0052030882471149602 0.011067611475455553 -0.019722155061801142 -0.0097769363906292563 -0.046236370872992032 0.015945646035590341 0.00054593024617912442 0.0087724496474921553 -0.0096117610076335378 0.017383153750731954 -0.015360495109070664 -0.0091344481304833653 -0.02490750959759154 0.015909701799653848 -0.0063464926941751631;0.00086973891749104917 -0.0018619351174873984 0.014151562047153779 0.010110269951925335 0.0099371313495647852 -0.01794754445534685 0.00078140754869161365 0.0028699978080432807 -0.024757677248175059 -0.027995685774847373 0.0024634905268052765 0.0066283506645383019 -0.032753091276406514 -0.0056606825404401182 -0.0019943145776204598 0.0023931356144717645 0.038297344512835022 0.0099058288841933802 0.0092366266948168563 -0.035876412314883227 -0.0037769910128469613 0.0044335353201551434 -0.019138184293855519 -0.0028633077988982486 0.018980804467632232 0.018287944919491757 -0.015944389180748999 -0.0055248041935004938 0.01531858709279787 0.011316450980174435 0.013757253274078606 0.027981079123479878 0.015703416266862964 -0.030450588757163836 0.0030569855159083619 -0.0059087543899068061 -0.003106482565788082 -0.004472465179633775 0.0065093951861030985 -0.00075802292458472921 -0.022619173713620277 0.0052030809494884997 -0.011067601064906967 0.019722120042425545 0.0097769132085576364 0.046236290889881945 -0.015945619211959285 -0.0005459311904897321 -0.0087724285858391138 0.0096117364966861359 -0.017383116519680011 0.015360474183916558 0.0091344244588224491 0.024907465398158454 -0.01590966717368977 0.0063464811218755671;-0.00086976044408727153 0.0018618971659292455 -0.014151457025586201 -0.010110207774646602 -0.0099370533638808347 0.017947431823822593 -0.00078137842043129416 -0.002869955818384179 0.024757509316667387 0.027995505952715386 -0.002463465745775808 -0.0066283091667723483 0.032752892203062059 0.0056606285947558913 0.0019942726045602019 -0.0023931365017302048 -0.038297109659194979 -0.0099057548675456075 -0.0092365978708112001 0.035876192601693335 0.0037769889614760917 -0.0044334989365391753 0.019138063911823804 0.0028632660960296922 -0.018980681447458327 -0.018287837742530934 0.015944271646789472 0.0055247708630426053 -0.015318517125728261 -0.011316387724886984 -0.013757150949307644 -0.027980900074080436 -0.015703303020835693 0.030450401831922092 -0.0030569710361648028 0.0059087436671069081 0.003106449840376314 0.0044724094028578054 -0.0065093224518796766 0.00075799243470146577 0.022619023383843327 -0.0052030559771268012 0.011067565438736776 -0.019722000209996118 -0.0097768338835814324 -0.046236017195789708 0.015945527423864993 0.00054593442148604689 0.0087723565165166613 -0.0096116526248103303 0.017382989120670295 -0.015360402578555079 -0.0091343434590309691 -0.02490731415246945 0.015909548689079459 -0.0063464415227559526;-0.0008697444228593004 0.0018619254117173936 -0.014151535189450766 -0.010110254051135715 -0.0099371114058465684 0.01794751565169728 -0.00078140009936332499 -0.0028699870696191911 0.024757634302324055 0.027995639788298061 -0.0024634841893607325 -0.006628340052177095 0.032753040366771985 0.0056606687445161785 0.0019943038433645702 -0.0023931358415393254 -0.038297284452951962 -0.0099058099555358915 -0.0092366193238961926 0.035876356126943849 0.0037769904884975671 -0.0044335260155561251 0.019138153508161899 0.0028632971338049635 -0.0189807730072106 -0.01828791751085368 0.015944359123204362 0.0055247956697978499 -0.015318569200176145 -0.011316434803752849 -0.01375722710605117 -0.027981033334523769 -0.015703387305915847 0.030450540954173214 -0.0030569818130136445 0.0059087516480290057 0.003106474196671555 0.004472450915331925 -0.0065093765851568335 0.00075801512702561443 0.022619135269175937 -0.005203074563326391 0.011067591954472244 -0.019722089397301877 -0.009776892922311816 -0.04623622089736646 0.015945595738787999 0.0005459320168122758 0.0087724101551298426 -0.0096117150475899648 0.017383083939304447 -0.015360455872310962 -0.0091344037441919938 -0.024907426719644719 0.015909636873012969 -0.0063464709950643346;0.00086974184378581015 -0.0018619299585514936 0.014151547771456907 0.010110261500177856 0.0099371207488623686 -0.017947529145334266 0.00078140358912591283 0.0028699921002216457 -0.024757654421137972 -0.027995661331606546 0.0024634871582528911 0.0066283450237482958 -0.032753064216394907 -0.0056606752074712498 -0.0019943088720061641 0.0023931357351806284 0.038297312589192313 0.0099058188230213146 0.0092366227769768595 -0.035876382449296307 -0.003776990734160894 0.0044335303744704813 -0.01913816793032681 -0.0028633021300526807 0.018980787745462156 0.018287930350974931 -0.015944373204232341 -0.005524799662895011 0.01531857758235146 0.011316442381921319 0.01375723936496269 0.027981054785253839 0.015703400873225581 -0.030450563348424223 0.0030569835477108919 -0.0059087529325425091 -0.0031064781173379273 -0.0044724575976970282 0.0065093852991009084 -0.00075801877992189362 -0.022619153279230298 0.0052030775550591744 -0.011067596222466926 0.019722103753616136 0.0097769024257848402 0.04623625368676202 -0.015945606735267268 -0.00054593162970931761 -0.0087724187893410636 0.0096117250958159435 -0.017383099202205359 0.015360464450764283 0.009134413448342954 0.024907444839359423 -0.015909651067943661 0.0063464757391686437;-0.00086973805597693457 0.001861936636289821 -0.014151566249930312 -0.010110272440125755 -0.0099371344704192576 0.017947548962622416 -0.00078140871440072568 -0.0028699994884363923 0.024757683968465109 0.027995692970955187 -0.0024634915185138425 -0.0066283523251902668 0.032753099242879981 0.0056606846992775144 0.0019943162573686133 -0.0023931355789270871 -0.038297353911167932 -0.0099058318462111189 -0.0092366278482156946 0.035876421107320998 0.0037769910948835177 -0.0044335367761693893 0.019138189111280835 0.0028633094678176857 -0.018980809390648817 -0.018287949208465111 0.015944393884244668 0.0055248055273116785 -0.015318589892663308 -0.01131645351150028 -0.013757257368935537 -0.027981086288665549 -0.015703420798760852 0.030450596237504571 -0.0030569860953424928 0.0059087548189403439 0.0031064838754176062 0.0044724674117689643 -0.0065093980968497847 0.00075802414478744271 0.02261917972951993 -0.0052030819488019017 0.011067602490510343 -0.019722124837854623 -0.0097769163830195051 -0.04623630184249812 0.015945622885094282 0.00054593106118039543 0.0087724314699399349 -0.0096117398531150988 0.017383121617957239 -0.01536047704934421 -0.0091344277003223267 -0.024907471450676087 0.015909671915239523 -0.0063464827065445499;-0.00086975706058614762 0.001861903131234569 -0.014151473533522167 -0.010110217548139037 -0.0099370656221238994 0.017947449528068777 -0.00078138299884689404 -0.0028699624184440513 0.024757535713279703 0.02799553421846426 -0.0024634696409650959 -0.0066283156897006708 0.032752923494925062 0.0056606370741929335 0.0019942792019563061 -0.0023931363623778024 -0.038297146575257186 -0.0099057665019470584 -0.0092366024018174942 0.035876227137878663 0.00377698928410142 -0.0044335046555209678 0.019138082834372336 0.0028632726510032683 -0.018980700784639551 -0.018287854589457798 0.015944290121520908 0.0055247761021780693 -0.015318528123872972 -0.01131639766786827 -0.013757167033350266 -0.027980928218354597 -0.015703320821575908 0.030450431214242582 -0.003056973312239105 0.0059087453528051974 0.0031064549843026301 0.0044724181700434044 -0.0065093338845180915 0.0007579972271330867 0.022619047013721021 -0.0052030599025384835 0.011067571038976718 -0.019722019046166672 -0.0097768463523285713 -0.046236060217194126 0.015945541851872982 0.00054593391364820209 0.0087723678447786269 -0.0096116658082344986 0.017383009146046919 -0.015360413834208912 -0.0091343561909827085 -0.024907337926421167 0.015909567313219013 -0.0063464477472422818;0.00086974166338758591 -0.0018619302765909159 0.014151548651532928 0.010110262021214178 0.009937121402382584 -0.017947530089173519 0.0007814038332273908 0.0028699924520983501 -0.024757655828391994 -0.027995662838488599 0.0024634873659175119 0.0066283453714950785 -0.032753065884603881 -0.0056606756595349453 -0.0019943092237489795 0.0023931357277399683 0.038297314557233272 0.009905819443278405 0.0092366230185080694 -0.035876384290457593 -0.0037769907513427888 0.0044335306793627793 -0.019138168939110897 -0.0028633024795286437 0.018980788776355811 0.018287931249104068 -0.015944374189165902 -0.0055247999422008056 0.015318578168657979 0.011316442911990953 0.013757240222437277 0.027981056285665568 0.015703401822218466 -0.030450564914829011 0.0030569836690484465 -0.0059087530223868642 -0.0031064783915784955 -0.0044724580651113073 0.0065093859086151921 -0.00075801903543292056 -0.022619154538980009 0.0052030777643200868 -0.011067596520996228 0.019722104757795119 0.0097769030905283417 0.046236255980280458 -0.015945607504437943 -0.00054593160263239542 -0.0087724193932822644 0.0096117257986620772 -0.017383100269799095 0.01536046505080229 0.0091344141271208976 0.024907446106778579 -0.015909652060837449 0.0063464760710027924;-0.00086975498680718038 0.0018619067873949817 -0.014151483651230753 -0.010110223538300496 -0.0099370731352019948 0.017947460378963543 -0.00078138580497779883 -0.0028699664636396031 0.024757551891732364 0.027995551542485213 -0.0024634720283325745 -0.0066283196875895614 0.032752942673636591 0.0056606422712450321 0.0019942832455267512 -0.0023931362769512537 -0.038297169201021997 -0.0099057736326520034 -0.0092366051788179224 0.035876248305024734 0.0037769894818068576 -0.0044335081606868077 0.019138094431957454 0.0028632766685659297 -0.018980712636368625 -0.01828786491489558 0.015944301444665809 0.0055247793132293796 -0.015318534864577805 -0.011316403761890047 -0.013757176891252687 -0.027980945467930427 -0.015703331731629275 0.030450449222587311 -0.00305697470723338 0.0059087463859310999 0.0031064581370222341 0.0044724235434705356 -0.0065093408916121693 0.00075800016444249043 0.022619061496438053 -0.0052030623084058231 0.011067574471305595 -0.019722030590806083 -0.0097768539944235802 -0.04623608658489247 0.015945550694754979 0.00054593360239141102 0.0087723747878741057 -0.0096116738883585944 0.017383021419596002 -0.015360420732742196 -0.0091343639944046762 -0.024907352497421296 0.015909578727943866 -0.0063464515622177024;-0.00086973779246721347 0.0018619371008418693 -0.014151567535419782 -0.0101102732011832 -0.0099371354249833972 0.01794755034125017 -0.00078140907095138512 -0.0028700000024132998 0.024757686023979576 0.027995695172004204 -0.0024634918218455 -0.0066283528331279413 0.032753101679561664 0.0056606853595969585 0.0019943167711498743 -0.0023931355680586464 -0.038297356785797619 -0.009905832752194442 -0.0092366282010034988 0.035876423796637309 0.0037769911199753664 -0.0044335372215161296 0.019138190584772213 0.0028633099782838217 -0.018980810896438011 -0.018287950520321849 0.015944395322886554 0.0055248059352805802 -0.015318590749046315 -0.01131645428574826 -0.013757258621415247 -0.027981088480257994 -0.015703422184917343 0.0304505985254926 -0.0030569862725731986 0.00590875495016963 0.0031064842759904979 0.0044724680945060673 -0.0065093989871541835 0.00075802451800135605 0.022619181569581204 -0.005203082254460892 0.011067602926553493 -0.019722126304619978 -0.0097769173539782542 -0.046236305192534813 0.015945624008588177 0.00054593102163000024 0.0087724323520863481 -0.0096117408797333128 0.017383123177350818 -0.01536047792578304 -0.0091344286917881077 -0.024907473301939383 0.015909673365520322 -0.0063464831912418574;-0.0008697409551408679 0.0018619315252003229 -0.014151552106666115 -0.010110264066789727 -0.0099371239680561708 0.017947533794644414 -0.00078140479155351596 -0.0028699938335556329 0.024757661353197041 0.027995668754473704 -0.0024634881812056579 -0.0066283467367301754 0.032753072433919929 0.0056606774343258967 0.0019943106046708837 -0.00239313569852699 -0.038297322283692446 -0.0099058218783770208 -0.0092366239667425725 0.035876391518812799 0.0037769908187978256 -0.0044335318763635287 0.019138172899568141 0.0028633038515503929 -0.018980792823610544 -0.01828793477511172 0.015944378055944355 0.0055248010387391137 -0.015318580470465798 -0.011316444993019582 -0.013757243588849657 -0.027981062176230441 -0.015703405547928227 0.0304505710644856 -0.0030569841454118735 0.0059087533751173999 0.0031064794682298946 0.0044724599001584632 -0.0065093883015562137 0.00075802003855920442 0.02261915948469715 -0.0052030785858726497 0.01106759769301555 -0.019722108700166028 -0.0097769057002698306 -0.046236264984531115 0.015945610524160537 0.00054593149632877727 0.0087724217643159793 -0.0096117285580015737 0.017383104461131723 -0.015360467406512316 -0.0091344167919756789 -0.024907451082611987 0.015909655958892776 -0.0063464773737767783;0.00086973906899149168 -0.0018619348503972222 0.014151561308069821 0.010110269514359491 0.0099371308007381465 -0.01794754366271524 0.00078140734369438894 0.0028699975125335182 -0.024757676066373226 -0.02799568450937151 0.0024634903524090755 0.0066283503725004236 -0.032753089875452245 -0.00566068216079632 -0.001994314282230486 0.0023931356207216909 0.038297342860076029 0.0099058283633046036 0.0092366264919834101 -0.035876410768678806 -0.0037769909984218604 0.0044335350641047985 -0.019138183446681532 -0.0028633075054078964 0.018980803601888589 0.018287944165246751 -0.015944388353606991 -0.0055248039589403846 0.015318586600419041 0.011316450535025118 0.01375725255397163 0.027981077863439386 0.015703415469900409 -0.030450587441691285 0.0030569854140101247 -0.005908754314457621 -0.0031064823354830288 -0.0044724647870990402 0.0065093946742248634 -0.00075802271000412745 -0.022619172655687449 0.0052030807737513118 -0.01106760081420115 0.019722119199116785 0.0097769126503111925 0.046236288963796897 -0.01594561856601184 -0.00054593121322968688 -0.0087724280786540682 0.0096117359064393278 -0.017383115623115546 0.015360473680008778 0.009134423888784448 0.024907464333783144 -0.01590966633986142 0.0063464808431995456;-0.00086975850247644109 0.0018619005891082176 -0.014151466498651014 -0.010110213383159251 -0.0099370603982604708 0.017947441983395488 -0.00078138104774417617 -0.0028699596058165701 0.024757524464343802 0.027995522173001362 -0.002463467981025281 -0.0066283129099558215 0.032752910159882839 0.0056606334606749296 0.0019942763904593126 -0.0023931364217675576 -0.038297130843450329 -0.0099057615439353819 -0.0092366004709373579 0.035876212420263565 0.003776989146620707 -0.0044335022183701897 0.019138074770512103 0.0028632698575873586 -0.018980692544088226 -0.018287847410130727 0.015944282248492696 0.0055247738695178798 -0.015318523437015893 -0.011316393430661294 -0.013757160179120409 -0.027980916224655473 -0.015703313235772894 0.030450418692953993 -0.0030569723422904176 0.0059087446344537557 0.0031064527922115793 0.0044724144338941603 -0.0065093290124817235 0.00075799518483000441 0.022619036943835574 -0.0052030582297270464 0.011067568652440764 -0.019722011019120154 -0.009776841038759981 -0.046236041883599151 0.01594553570337039 0.00054593413006621668 0.0087723630172266229 -0.0096116601900995101 0.017383000612210684 -0.015360409037613952 -0.0091343507652451531 -0.024907327795139739 0.0159095593765195 -0.0063464450946739207];
  
  % Layer 2
  b2 = -0.18921996445294156;
  LW2_1 = [-0.13292009681837469 -0.13291987209692174 -0.13292015389124356 0.13291978095291418 -0.13292012835964961 0.13291992296040225 -0.13291950924972148 -0.13291934634300365 0.13291954561822644 -0.13292022744689838 -0.13291971999461397 0.13291963830543754 -0.13291951833071297 -0.13292012027904024 0.13291963259145559 -0.13292005459477269 -0.13291950998435517 -0.13291961015857448 0.13291955041686804 -0.13292016594901038];
  
  % Output 1
  y1_step1_ymin = -1;
  y1_step1_gain = 1.51474746773986e-07;
  y1_step1_xoffset = 233555;
  
  % ===== SIMULATION ========
  
  % Dimensions
  Q = size(x1,2); % samples
  
  % Input 1
  xp1 = mapminmax_apply(x1,x1_step1_gain,x1_step1_xoffset,x1_step1_ymin);
  
  % Layer 1
  a1 = tansig_apply(repmat(b1,1,Q) + IW1_1*xp1);
  
  % Layer 2
  a2 = repmat(b2,1,Q) + LW2_1*a1;
  
  % Output 1
  y1 = mapminmax_reverse(a2,y1_step1_gain,y1_step1_xoffset,y1_step1_ymin);
end

% ===== MODULE FUNCTIONS ========

% Map Minimum and Maximum Input Processing Function
function y = mapminmax_apply(x,settings_gain,settings_xoffset,settings_ymin)
  y = bsxfun(@minus,x,settings_xoffset);
  y = bsxfun(@times,y,settings_gain);
  y = bsxfun(@plus,y,settings_ymin);
end

% Sigmoid Symmetric Transfer Function
function a = tansig_apply(n)
  a = 2 ./ (1 + exp(-2*n)) - 1;
end

% Map Minimum and Maximum Output Reverse-Processing Function
function x = mapminmax_reverse(y,settings_gain,settings_xoffset,settings_ymin)
  x = bsxfun(@minus,y,settings_ymin);
  x = bsxfun(@rdivide,x,settings_gain);
  x = bsxfun(@plus,x,settings_xoffset);
end
